digraph Tree {
node [shape=box, style="filled, rounded", color="black", fontname="helvetica"] ;
edge [fontname="helvetica"] ;
0 [label="radius_mean <= 15.025\ngini = 0.468\nsamples = 483\nvalue = [303, 180]\nclass = Benign", fillcolor="#f4ccaf"] ;
1 [label="compactness_mean <= 0.125\ngini = 0.23\nsamples = 340\nvalue = [295, 45]\nclass = Benign", fillcolor="#e99457"] ;
0 -> 1 [labeldistance=2.5, labelangle=45, headlabel="True"] ;
2 [label="texture_mean <= 19.61\ngini = 0.105\nsamples = 287\nvalue = [271, 16]\nclass = Benign", fillcolor="#e78845"] ;
1 -> 2 ;
3 [label="gini = 0.0\nsamples = 203\nvalue = [203, 0]\nclass = Benign", fillcolor="#e58139"] ;
2 -> 3 ;
4 [label="radius_mean <= 13.165\ngini = 0.308\nsamples = 84\nvalue = [68, 16]\nclass = Benign", fillcolor="#eb9f68"] ;
2 -> 4 ;
5 [label="compactness_mean <= 0.121\ngini = 0.075\nsamples = 51\nvalue = [49, 2]\nclass = Benign", fillcolor="#e68641"] ;
4 -> 5 ;
6 [label="gini = 0.039\nsamples = 50\nvalue = [49, 1]\nclass = Benign", fillcolor="#e6843d"] ;
5 -> 6 ;
7 [label="gini = 0.0\nsamples = 1\nvalue = [0, 1]\nclass = Malignant", fillcolor="#399de5"] ;
5 -> 7 ;
8 [label="smoothness_mean <= 0.093\ngini = 0.489\nsamples = 33\nvalue = [19, 14]\nclass = Benign", fillcolor="#f8decb"] ;
4 -> 8 ;
9 [label="gini = 0.266\nsamples = 19\nvalue = [16, 3]\nclass = Benign", fillcolor="#ea995e"] ;
8 -> 9 ;
10 [label="gini = 0.337\nsamples = 14\nvalue = [3, 11]\nclass = Malignant", fillcolor="#6fb8ec"] ;
8 -> 10 ;
11 [label="texture_mean <= 20.455\ngini = 0.496\nsamples = 53\nvalue = [24, 29]\nclass = Malignant", fillcolor="#ddeefb"] ;
1 -> 11 ;
12 [label="radius_mean <= 10.895\ngini = 0.444\nsamples = 33\nvalue = [22, 11]\nclass = Benign", fillcolor="#f2c09c"] ;
11 -> 12 ;
13 [label="gini = 0.0\nsamples = 9\nvalue = [9, 0]\nclass = Benign", fillcolor="#e58139"] ;
12 -> 13 ;
14 [label="symmetry_mean <= 0.209\ngini = 0.497\nsamples = 24\nvalue = [13, 11]\nclass = Benign", fillcolor="#fbece1"] ;
12 -> 14 ;
15 [label="gini = 0.415\nsamples = 17\nvalue = [12, 5]\nclass = Benign", fillcolor="#f0b58b"] ;
14 -> 15 ;
16 [label="gini = 0.245\nsamples = 7\nvalue = [1, 6]\nclass = Malignant", fillcolor="#5aade9"] ;
14 -> 16 ;
17 [label="symmetry_mean <= 0.159\ngini = 0.18\nsamples = 20\nvalue = [2, 18]\nclass = Malignant", fillcolor="#4fa8e8"] ;
11 -> 17 ;
18 [label="gini = 0.0\nsamples = 1\nvalue = [1, 0]\nclass = Benign", fillcolor="#e58139"] ;
17 -> 18 ;
19 [label="radius_mean <= 12.015\ngini = 0.1\nsamples = 19\nvalue = [1, 18]\nclass = Malignant", fillcolor="#44a2e6"] ;
17 -> 19 ;
20 [label="gini = 0.0\nsamples = 1\nvalue = [1, 0]\nclass = Benign", fillcolor="#e58139"] ;
19 -> 20 ;
21 [label="gini = 0.0\nsamples = 18\nvalue = [0, 18]\nclass = Malignant", fillcolor="#399de5"] ;
19 -> 21 ;
22 [label="texture_mean <= 16.535\ngini = 0.106\nsamples = 143\nvalue = [8, 135]\nclass = Malignant", fillcolor="#45a3e7"] ;
0 -> 22 [labeldistance=2.5, labelangle=-45, headlabel="False"] ;
23 [label="compactness_mean <= 0.105\ngini = 0.492\nsamples = 16\nvalue = [7, 9]\nclass = Malignant", fillcolor="#d3e9f9"] ;
22 -> 23 ;
24 [label="gini = 0.0\nsamples = 4\nvalue = [4, 0]\nclass = Benign", fillcolor="#e58139"] ;
23 -> 24 ;
25 [label="radius_mean <= 16.87\ngini = 0.375\nsamples = 12\nvalue = [3, 9]\nclass = Malignant", fillcolor="#7bbeee"] ;
23 -> 25 ;
26 [label="texture_mean <= 15.79\ngini = 0.5\nsamples = 6\nvalue = [3, 3]\nclass = Benign", fillcolor="#ffffff"] ;
25 -> 26 ;
27 [label="gini = 0.375\nsamples = 4\nvalue = [1, 3]\nclass = Malignant", fillcolor="#7bbeee"] ;
26 -> 27 ;
28 [label="gini = 0.0\nsamples = 2\nvalue = [2, 0]\nclass = Benign", fillcolor="#e58139"] ;
26 -> 28 ;
29 [label="gini = 0.0\nsamples = 6\nvalue = [0, 6]\nclass = Malignant", fillcolor="#399de5"] ;
25 -> 29 ;
30 [label="symmetry_mean <= 0.15\ngini = 0.016\nsamples = 127\nvalue = [1, 126]\nclass = Malignant", fillcolor="#3b9ee5"] ;
22 -> 30 ;
31 [label="radius_mean <= 16.885\ngini = 0.32\nsamples = 5\nvalue = [1, 4]\nclass = Malignant", fillcolor="#6ab6ec"] ;
30 -> 31 ;
32 [label="gini = 0.0\nsamples = 1\nvalue = [1, 0]\nclass = Benign", fillcolor="#e58139"] ;
31 -> 32 ;
33 [label="gini = 0.0\nsamples = 4\nvalue = [0, 4]\nclass = Malignant", fillcolor="#399de5"] ;
31 -> 33 ;
34 [label="gini = 0.0\nsamples = 122\nvalue = [0, 122]\nclass = Malignant", fillcolor="#399de5"] ;
30 -> 34 ;
}