digraph Tree {
node [shape=box, style="filled, rounded", color="black", fontname="helvetica"] ;
edge [fontname="helvetica"] ;
0 [label="x[1] <= -0.336\ngini = 0.468\nsamples = 483\nvalue = [303, 180]\nclass = Benign", fillcolor="#f4ccaf"] ;
1 [label="x[0] <= -0.895\ngini = 0.342\nsamples = 169\nvalue = [37, 132]\nclass = Malignant", fillcolor="#70b8ec"] ;
0 -> 1 [labeldistance=2.5, labelangle=45, headlabel="True"] ;
2 [label="x[1] <= -1.701\ngini = 0.435\nsamples = 47\nvalue = [32, 15]\nclass = Benign", fillcolor="#f1bc96"] ;
1 -> 2 ;
3 [label="gini = 0.0\nsamples = 8\nvalue = [0, 8]\nclass = Malignant", fillcolor="#399de5"] ;
2 -> 3 ;
4 [label="x[2] <= 0.789\ngini = 0.295\nsamples = 39\nvalue = [32, 7]\nclass = Benign", fillcolor="#eb9d64"] ;
2 -> 4 ;
5 [label="x[1] <= -0.914\ngini = 0.423\nsamples = 23\nvalue = [16, 7]\nclass = Benign", fillcolor="#f0b890"] ;
4 -> 5 ;
6 [label="gini = 0.278\nsamples = 6\nvalue = [1, 5]\nclass = Malignant", fillcolor="#61b1ea"] ;
5 -> 6 ;
7 [label="gini = 0.208\nsamples = 17\nvalue = [15, 2]\nclass = Benign", fillcolor="#e89253"] ;
5 -> 7 ;
8 [label="gini = 0.0\nsamples = 16\nvalue = [16, 0]\nclass = Benign", fillcolor="#e58139"] ;
4 -> 8 ;
9 [label="x[0] <= -0.132\ngini = 0.079\nsamples = 122\nvalue = [5, 117]\nclass = Malignant", fillcolor="#41a1e6"] ;
1 -> 9 ;
10 [label="x[2] <= 0.096\ngini = 0.239\nsamples = 36\nvalue = [5, 31]\nclass = Malignant", fillcolor="#59ade9"] ;
9 -> 10 ;
11 [label="gini = 0.0\nsamples = 23\nvalue = [0, 23]\nclass = Malignant", fillcolor="#399de5"] ;
10 -> 11 ;
12 [label="x[4] <= 0.265\ngini = 0.473\nsamples = 13\nvalue = [5, 8]\nclass = Malignant", fillcolor="#b5daf5"] ;
10 -> 12 ;
13 [label="gini = 0.32\nsamples = 10\nvalue = [2, 8]\nclass = Malignant", fillcolor="#6ab6ec"] ;
12 -> 13 ;
14 [label="gini = 0.0\nsamples = 3\nvalue = [3, 0]\nclass = Benign", fillcolor="#e58139"] ;
12 -> 14 ;
15 [label="gini = 0.0\nsamples = 86\nvalue = [0, 86]\nclass = Malignant", fillcolor="#399de5"] ;
9 -> 15 ;
16 [label="x[0] <= 2.036\ngini = 0.259\nsamples = 314\nvalue = [266, 48]\nclass = Benign", fillcolor="#ea985d"] ;
0 -> 16 [labeldistance=2.5, labelangle=-45, headlabel="False"] ;
17 [label="x[1] <= 0.01\ngini = 0.15\nsamples = 281\nvalue = [258, 23]\nclass = Benign", fillcolor="#e78c4b"] ;
16 -> 17 ;
18 [label="x[0] <= -0.131\ngini = 0.42\nsamples = 50\nvalue = [35, 15]\nclass = Benign", fillcolor="#f0b78e"] ;
17 -> 18 ;
19 [label="x[4] <= -0.321\ngini = 0.145\nsamples = 38\nvalue = [35, 3]\nclass = Benign", fillcolor="#e78c4a"] ;
18 -> 19 ;
20 [label="gini = 0.5\nsamples = 4\nvalue = [2, 2]\nclass = Benign", fillcolor="#ffffff"] ;
19 -> 20 ;
21 [label="gini = 0.057\nsamples = 34\nvalue = [33, 1]\nclass = Benign", fillcolor="#e6853f"] ;
19 -> 21 ;
22 [label="gini = 0.0\nsamples = 12\nvalue = [0, 12]\nclass = Malignant", fillcolor="#399de5"] ;
18 -> 22 ;
23 [label="x[0] <= 1.184\ngini = 0.067\nsamples = 231\nvalue = [223, 8]\nclass = Benign", fillcolor="#e68640"] ;
17 -> 23 ;
24 [label="x[0] <= 0.2\ngini = 0.029\nsamples = 206\nvalue = [203, 3]\nclass = Benign", fillcolor="#e5833c"] ;
23 -> 24 ;
25 [label="gini = 0.0\nsamples = 164\nvalue = [164, 0]\nclass = Benign", fillcolor="#e58139"] ;
24 -> 25 ;
26 [label="gini = 0.133\nsamples = 42\nvalue = [39, 3]\nclass = Benign", fillcolor="#e78b48"] ;
24 -> 26 ;
27 [label="x[1] <= 0.948\ngini = 0.32\nsamples = 25\nvalue = [20, 5]\nclass = Benign", fillcolor="#eca06a"] ;
23 -> 27 ;
28 [label="gini = 0.5\nsamples = 10\nvalue = [5, 5]\nclass = Benign", fillcolor="#ffffff"] ;
27 -> 28 ;
29 [label="gini = 0.0\nsamples = 15\nvalue = [15, 0]\nclass = Benign", fillcolor="#e58139"] ;
27 -> 29 ;
30 [label="x[1] <= 1.818\ngini = 0.367\nsamples = 33\nvalue = [8, 25]\nclass = Malignant", fillcolor="#78bced"] ;
16 -> 30 ;
31 [label="x[0] <= 2.089\ngini = 0.137\nsamples = 27\nvalue = [2, 25]\nclass = Malignant", fillcolor="#49a5e7"] ;
30 -> 31 ;
32 [label="gini = 0.5\nsamples = 2\nvalue = [1, 1]\nclass = Benign", fillcolor="#ffffff"] ;
31 -> 32 ;
33 [label="x[2] <= 1.209\ngini = 0.077\nsamples = 25\nvalue = [1, 24]\nclass = Malignant", fillcolor="#41a1e6"] ;
31 -> 33 ;
34 [label="gini = 0.0\nsamples = 23\nvalue = [0, 23]\nclass = Malignant", fillcolor="#399de5"] ;
33 -> 34 ;
35 [label="gini = 0.5\nsamples = 2\nvalue = [1, 1]\nclass = Benign", fillcolor="#ffffff"] ;
33 -> 35 ;
36 [label="gini = 0.0\nsamples = 6\nvalue = [6, 0]\nclass = Benign", fillcolor="#e58139"] ;
30 -> 36 ;
}