digraph Tree {
node [shape=box, style="filled, rounded", color="black", fontname="helvetica"] ;
edge [fontname="helvetica"] ;
0 [label="feature 2 <= 0.148\ngini = 0.5\nsamples = 150\nvalue = [75, 75]\nclass = class1", fillcolor="#ffffff"] ;
1 [label="feature 1 <= -0.039\ngini = 0.175\nsamples = 62\nvalue = [6, 56]\nclass = class2", fillcolor="#4ea8e8"] ;
0 -> 1 [labeldistance=2.5, labelangle=45, headlabel="True"] ;
2 [label="gini = 0.48\nsamples = 5\nvalue = [3, 2]\nclass = class1", fillcolor="#f6d5bd"] ;
1 -> 2 ;
3 [label="feature 2 <= -0.045\ngini = 0.1\nsamples = 57\nvalue = [3, 54]\nclass = class2", fillcolor="#44a2e6"] ;
1 -> 3 ;
4 [label="gini = 0.0\nsamples = 39\nvalue = [0, 39]\nclass = class2", fillcolor="#399de5"] ;
3 -> 4 ;
5 [label="feature 2 <= 0.036\ngini = 0.278\nsamples = 18\nvalue = [3, 15]\nclass = class2", fillcolor="#61b1ea"] ;
3 -> 5 ;
6 [label="gini = 0.469\nsamples = 8\nvalue = [3, 5]\nclass = class2", fillcolor="#b0d8f5"] ;
5 -> 6 ;
7 [label="gini = 0.0\nsamples = 10\nvalue = [0, 10]\nclass = class2", fillcolor="#399de5"] ;
5 -> 7 ;
8 [label="feature 1 <= 1.498\ngini = 0.339\nsamples = 88\nvalue = [69, 19]\nclass = class1", fillcolor="#eca470"] ;
0 -> 8 [labeldistance=2.5, labelangle=-45, headlabel="False"] ;
9 [label="feature 2 <= 0.529\ngini = 0.237\nsamples = 80\nvalue = [69, 11]\nclass = class1", fillcolor="#e99559"] ;
8 -> 9 ;
10 [label="feature 1 <= -0.512\ngini = 0.436\nsamples = 28\nvalue = [19, 9]\nclass = class1", fillcolor="#f1bd97"] ;
9 -> 10 ;
11 [label="gini = 0.0\nsamples = 9\nvalue = [9, 0]\nclass = class1", fillcolor="#e58139"] ;
10 -> 11 ;
12 [label="feature 1 <= 0.758\ngini = 0.499\nsamples = 19\nvalue = [10, 9]\nclass = class1", fillcolor="#fcf2eb"] ;
10 -> 12 ;
13 [label="feature 2 <= 0.338\ngini = 0.18\nsamples = 10\nvalue = [1, 9]\nclass = class2", fillcolor="#4fa8e8"] ;
12 -> 13 ;
14 [label="gini = 0.0\nsamples = 5\nvalue = [0, 5]\nclass = class2", fillcolor="#399de5"] ;
13 -> 14 ;
15 [label="gini = 0.32\nsamples = 5\nvalue = [1, 4]\nclass = class2", fillcolor="#6ab6ec"] ;
13 -> 15 ;
16 [label="gini = 0.0\nsamples = 9\nvalue = [9, 0]\nclass = class1", fillcolor="#e58139"] ;
12 -> 16 ;
17 [label="feature 2 <= 0.767\ngini = 0.074\nsamples = 52\nvalue = [50, 2]\nclass = class1", fillcolor="#e68641"] ;
9 -> 17 ;
18 [label="feature 2 <= 0.6\ngini = 0.188\nsamples = 19\nvalue = [17, 2]\nclass = class1", fillcolor="#e89050"] ;
17 -> 18 ;
19 [label="gini = 0.0\nsamples = 9\nvalue = [9, 0]\nclass = class1", fillcolor="#e58139"] ;
18 -> 19 ;
20 [label="feature 1 <= 0.023\ngini = 0.32\nsamples = 10\nvalue = [8, 2]\nclass = class1", fillcolor="#eca06a"] ;
18 -> 20 ;
21 [label="gini = 0.32\nsamples = 5\nvalue = [4, 1]\nclass = class1", fillcolor="#eca06a"] ;
20 -> 21 ;
22 [label="gini = 0.32\nsamples = 5\nvalue = [4, 1]\nclass = class1", fillcolor="#eca06a"] ;
20 -> 22 ;
23 [label="gini = 0.0\nsamples = 33\nvalue = [33, 0]\nclass = class1", fillcolor="#e58139"] ;
17 -> 23 ;
24 [label="gini = 0.0\nsamples = 8\nvalue = [0, 8]\nclass = class2", fillcolor="#399de5"] ;
8 -> 24 ;
}