digraph Tree {
node [shape=box, style="filled, rounded", color="black", fontname="helvetica"] ;
edge [fontname="helvetica"] ;
0 [label="mean concave points <= 0.049\ngini = 0.468\nsamples = 483\nvalue = [303, 180]\nclass = malignant", fillcolor="#f4ccaf"] ;
1 [label="mean radius <= 15.025\ngini = 0.104\nsamples = 291\nvalue = [275, 16]\nclass = malignant", fillcolor="#e78845"] ;
0 -> 1 [labeldistance=2.5, labelangle=45, headlabel="True"] ;
2 [label="radius error <= 0.973\ngini = 0.049\nsamples = 278\nvalue = [271, 7]\nclass = malignant", fillcolor="#e6843e"] ;
1 -> 2 ;
3 [label="gini = 0.042\nsamples = 277\nvalue = [271, 6]\nclass = malignant", fillcolor="#e6843d"] ;
2 -> 3 ;
4 [label="gini = 0.0\nsamples = 1\nvalue = [0, 1]\nclass = benign", fillcolor="#399de5"] ;
2 -> 4 ;
5 [label="mean texture <= 18.68\ngini = 0.426\nsamples = 13\nvalue = [4, 9]\nclass = benign", fillcolor="#91c9f1"] ;
1 -> 5 ;
6 [label="gini = 0.32\nsamples = 5\nvalue = [4, 1]\nclass = malignant", fillcolor="#eca06a"] ;
5 -> 6 ;
7 [label="gini = 0.0\nsamples = 8\nvalue = [0, 8]\nclass = benign", fillcolor="#399de5"] ;
5 -> 7 ;
8 [label="mean texture <= 15.425\ngini = 0.249\nsamples = 192\nvalue = [28, 164]\nclass = benign", fillcolor="#5baee9"] ;
0 -> 8 [labeldistance=2.5, labelangle=-45, headlabel="False"] ;
9 [label="mean concave points <= 0.079\ngini = 0.42\nsamples = 20\nvalue = [14, 6]\nclass = malignant", fillcolor="#f0b78e"] ;
8 -> 9 ;
10 [label="gini = 0.0\nsamples = 14\nvalue = [14, 0]\nclass = malignant", fillcolor="#e58139"] ;
9 -> 10 ;
11 [label="gini = 0.0\nsamples = 6\nvalue = [0, 6]\nclass = benign", fillcolor="#399de5"] ;
9 -> 11 ;
12 [label="mean radius <= 13.61\ngini = 0.15\nsamples = 172\nvalue = [14, 158]\nclass = benign", fillcolor="#4ba6e7"] ;
8 -> 12 ;
13 [label="gini = 0.483\nsamples = 22\nvalue = [9, 13]\nclass = benign", fillcolor="#c2e1f7"] ;
12 -> 13 ;
14 [label="gini = 0.064\nsamples = 150\nvalue = [5, 145]\nclass = benign", fillcolor="#40a0e6"] ;
12 -> 14 ;
}