digraph Tree {
node [shape=box, style="filled, rounded", color="black", fontname="helvetica"] ;
edge [fontname="helvetica"] ;
0 [label="mean concave points <= 0.051\ngini = 0.468\nsamples = 483\nvalue = [180, 303]\nclass = benign", fillcolor="#afd7f4"] ;
1 [label="mean radius <= 14.98\ngini = 0.109\nsamples = 295\nvalue = [17, 278]\nclass = benign", fillcolor="#45a3e7"] ;
0 -> 1 [labeldistance=2.5, labelangle=45, headlabel="True"] ;
2 [label="mean concave points <= 0.049\ngini = 0.049\nsamples = 278\nvalue = [7, 271]\nclass = benign", fillcolor="#3ea0e6"] ;
1 -> 2 ;
3 [label="gini = 0.036\nsamples = 273\nvalue = [5, 268]\nclass = benign", fillcolor="#3d9fe5"] ;
2 -> 3 ;
4 [label="gini = 0.48\nsamples = 5\nvalue = [2, 3]\nclass = benign", fillcolor="#bddef6"] ;
2 -> 4 ;
5 [label="mean texture <= 19.83\ngini = 0.484\nsamples = 17\nvalue = [10, 7]\nclass = malignant", fillcolor="#f7d9c4"] ;
1 -> 5 ;
6 [label="gini = 0.346\nsamples = 9\nvalue = [2, 7]\nclass = benign", fillcolor="#72b9ec"] ;
5 -> 6 ;
7 [label="gini = 0.0\nsamples = 8\nvalue = [8, 0]\nclass = malignant", fillcolor="#e58139"] ;
5 -> 7 ;
8 [label="mean texture <= 16.11\ngini = 0.231\nsamples = 188\nvalue = [163, 25]\nclass = malignant", fillcolor="#e99457"] ;
0 -> 8 [labeldistance=2.5, labelangle=-45, headlabel="False"] ;
9 [label="mean concave points <= 0.079\ngini = 0.423\nsamples = 23\nvalue = [7, 16]\nclass = benign", fillcolor="#90c8f0"] ;
8 -> 9 ;
10 [label="gini = 0.0\nsamples = 16\nvalue = [0, 16]\nclass = benign", fillcolor="#399de5"] ;
9 -> 10 ;
11 [label="gini = 0.0\nsamples = 7\nvalue = [7, 0]\nclass = malignant", fillcolor="#e58139"] ;
9 -> 11 ;
12 [label="mean radius <= 13.61\ngini = 0.103\nsamples = 165\nvalue = [156, 9]\nclass = malignant", fillcolor="#e68844"] ;
8 -> 12 ;
13 [label="gini = 0.455\nsamples = 20\nvalue = [13, 7]\nclass = malignant", fillcolor="#f3c5a4"] ;
12 -> 13 ;
14 [label="gini = 0.027\nsamples = 145\nvalue = [143, 2]\nclass = malignant", fillcolor="#e5833c"] ;
12 -> 14 ;
}