digraph Tree {
node [shape=box, style="filled, rounded", color="black", fontname="helvetica"] ;
edge [fontname="helvetica"] ;
0 [label="mean concave points <= 0.049\ngini = 0.468\nsamples = 483\nvalue = [303, 180]\nclass = malignant", fillcolor="#f4ccaf"] ;
1 [label="mean radius <= 15.025\ngini = 0.104\nsamples = 291\nvalue = [275, 16]\nclass = malignant", fillcolor="#e78845"] ;
0 -> 1 [labeldistance=2.5, labelangle=45, headlabel="True"] ;
2 [label="mean texture <= 22.455\ngini = 0.049\nsamples = 278\nvalue = [271, 7]\nclass = malignant", fillcolor="#e6843e"] ;
1 -> 2 ;
3 [label="smoothness error <= 0.003\ngini = 0.016\nsamples = 246\nvalue = [244, 2]\nclass = malignant", fillcolor="#e5823b"] ;
2 -> 3 ;
4 [label="gini = 0.245\nsamples = 7\nvalue = [6, 1]\nclass = malignant", fillcolor="#e9965a"] ;
3 -> 4 ;
5 [label="radius error <= 0.468\ngini = 0.008\nsamples = 239\nvalue = [238, 1]\nclass = malignant", fillcolor="#e5823a"] ;
3 -> 5 ;
6 [label="gini = 0.0\nsamples = 228\nvalue = [228, 0]\nclass = malignant", fillcolor="#e58139"] ;
5 -> 6 ;
7 [label="mean fractal dimension <= 0.065\ngini = 0.165\nsamples = 11\nvalue = [10, 1]\nclass = malignant", fillcolor="#e88e4d"] ;
5 -> 7 ;
8 [label="gini = 0.32\nsamples = 5\nvalue = [4, 1]\nclass = malignant", fillcolor="#eca06a"] ;
7 -> 8 ;
9 [label="gini = 0.0\nsamples = 6\nvalue = [6, 0]\nclass = malignant", fillcolor="#e58139"] ;
7 -> 9 ;
10 [label="mean smoothness <= 0.09\ngini = 0.264\nsamples = 32\nvalue = [27, 5]\nclass = malignant", fillcolor="#ea985e"] ;
2 -> 10 ;
11 [label="gini = 0.0\nsamples = 19\nvalue = [19, 0]\nclass = malignant", fillcolor="#e58139"] ;
10 -> 11 ;
12 [label="mean radius <= 12.165\ngini = 0.473\nsamples = 13\nvalue = [8, 5]\nclass = malignant", fillcolor="#f5d0b5"] ;
10 -> 12 ;
13 [label="gini = 0.0\nsamples = 5\nvalue = [5, 0]\nclass = malignant", fillcolor="#e58139"] ;
12 -> 13 ;
14 [label="gini = 0.469\nsamples = 8\nvalue = [3, 5]\nclass = benign", fillcolor="#b0d8f5"] ;
12 -> 14 ;
15 [label="mean texture <= 18.68\ngini = 0.426\nsamples = 13\nvalue = [4, 9]\nclass = benign", fillcolor="#91c9f1"] ;
1 -> 15 ;
16 [label="gini = 0.32\nsamples = 5\nvalue = [4, 1]\nclass = malignant", fillcolor="#eca06a"] ;
15 -> 16 ;
17 [label="gini = 0.0\nsamples = 8\nvalue = [0, 8]\nclass = benign", fillcolor="#399de5"] ;
15 -> 17 ;
18 [label="mean texture <= 15.425\ngini = 0.249\nsamples = 192\nvalue = [28, 164]\nclass = benign", fillcolor="#5baee9"] ;
0 -> 18 [labeldistance=2.5, labelangle=-45, headlabel="False"] ;
19 [label="mean concave points <= 0.079\ngini = 0.42\nsamples = 20\nvalue = [14, 6]\nclass = malignant", fillcolor="#f0b78e"] ;
18 -> 19 ;
20 [label="gini = 0.0\nsamples = 14\nvalue = [14, 0]\nclass = malignant", fillcolor="#e58139"] ;
19 -> 20 ;
21 [label="gini = 0.0\nsamples = 6\nvalue = [0, 6]\nclass = benign", fillcolor="#399de5"] ;
19 -> 21 ;
22 [label="mean radius <= 13.61\ngini = 0.15\nsamples = 172\nvalue = [14, 158]\nclass = benign", fillcolor="#4ba6e7"] ;
18 -> 22 ;
23 [label="symmetry error <= 0.017\ngini = 0.483\nsamples = 22\nvalue = [9, 13]\nclass = benign", fillcolor="#c2e1f7"] ;
22 -> 23 ;
24 [label="mean concave points <= 0.063\ngini = 0.18\nsamples = 10\nvalue = [1, 9]\nclass = benign", fillcolor="#4fa8e8"] ;
23 -> 24 ;
25 [label="gini = 0.32\nsamples = 5\nvalue = [1, 4]\nclass = benign", fillcolor="#6ab6ec"] ;
24 -> 25 ;
26 [label="gini = 0.0\nsamples = 5\nvalue = [0, 5]\nclass = benign", fillcolor="#399de5"] ;
24 -> 26 ;
27 [label="mean fractal dimension <= 0.073\ngini = 0.444\nsamples = 12\nvalue = [8, 4]\nclass = malignant", fillcolor="#f2c09c"] ;
23 -> 27 ;
28 [label="gini = 0.0\nsamples = 7\nvalue = [7, 0]\nclass = malignant", fillcolor="#e58139"] ;
27 -> 28 ;
29 [label="gini = 0.32\nsamples = 5\nvalue = [1, 4]\nclass = benign", fillcolor="#6ab6ec"] ;
27 -> 29 ;
30 [label="fractal dimension error <= 0.012\ngini = 0.064\nsamples = 150\nvalue = [5, 145]\nclass = benign", fillcolor="#40a0e6"] ;
22 -> 30 ;
31 [label="radius error <= 0.237\ngini = 0.041\nsamples = 145\nvalue = [3, 142]\nclass = benign", fillcolor="#3d9fe6"] ;
30 -> 31 ;
32 [label="gini = 0.444\nsamples = 6\nvalue = [2, 4]\nclass = benign", fillcolor="#9ccef2"] ;
31 -> 32 ;
33 [label="mean texture <= 16.53\ngini = 0.014\nsamples = 139\nvalue = [1, 138]\nclass = benign", fillcolor="#3a9ee5"] ;
31 -> 33 ;
34 [label="gini = 0.32\nsamples = 5\nvalue = [1, 4]\nclass = benign", fillcolor="#6ab6ec"] ;
33 -> 34 ;
35 [label="gini = 0.0\nsamples = 134\nvalue = [0, 134]\nclass = benign", fillcolor="#399de5"] ;
33 -> 35 ;
36 [label="gini = 0.48\nsamples = 5\nvalue = [2, 3]\nclass = benign", fillcolor="#bddef6"] ;
30 -> 36 ;
}